Language model created by QuickLM on Tue Mar 20 04:55:37 EDT 2018
Copyright (c) 1996-2010 Carnegie Mellon University and Alexander I. Rudnicky

The model is in standard ARPA format, designed by Doug Paul while he was at MITRE.

The code that was used to produce this language model is available in Open Source.
Please visit http://www.speech.cs.cmu.edu/tools/ for more information

The (fixed) discount mass is 0.5. The backoffs are computed using the ratio method.
This model based on a corpus of 5 sentences and 7 words

\data\
ngram 1=7
ngram 2=10
ngram 3=5

\1-grams:
-0.7782 </s> -0.3010
-0.7782 <s> -0.2218
-1.4771 APPLE -0.2218
-1.4771 BALL -0.2218
-1.4771 CAT -0.2218
-1.4771 DOG -0.2218
-1.4771 EGG -0.2218

\2-grams:
-1.0000 <s> APPLE 0.0000
-1.0000 <s> BALL 0.0000
-1.0000 <s> CAT 0.0000
-1.0000 <s> DOG 0.0000
-1.0000 <s> EGG 0.0000
-0.3010 APPLE </s> -0.3010
-0.3010 BALL </s> -0.3010
-0.3010 CAT </s> -0.3010
-0.3010 DOG </s> -0.3010
-0.3010 EGG </s> -0.3010

\3-grams:
-0.3010 <s> APPLE </s>
-0.3010 <s> BALL </s>
-0.3010 <s> CAT </s>
-0.3010 <s> DOG </s>
-0.3010 <s> EGG </s>

\end\
