Language model created by QuickLM on Mon Mar 19 18:24:54 EDT 2018
Copyright (c) 1996-2010 Carnegie Mellon University and Alexander I. Rudnicky

The model is in standard ARPA format, designed by Doug Paul while he was at MITRE.

The code that was used to produce this language model is available in Open Source.
Please visit http://www.speech.cs.cmu.edu/tools/ for more information

The (fixed) discount mass is 0.5. The backoffs are computed using the ratio method.
This model based on a corpus of 9 sentences and 11 words

\data\
ngram 1=11
ngram 2=18
ngram 3=9

\1-grams:
-0.7782 </s> -0.3010
-0.7782 <s> -0.2218
-1.7324 A -0.2218
-1.7324 B -0.2218
-1.7324 C -0.2218
-1.7324 D -0.2218
-1.7324 E -0.2218
-1.7324 F -0.2218
-1.7324 G -0.2218
-1.7324 H -0.2218
-1.7324 I -0.2218

\2-grams:
-1.2553 <s> A 0.0000
-1.2553 <s> B 0.0000
-1.2553 <s> C 0.0000
-1.2553 <s> D 0.0000
-1.2553 <s> E 0.0000
-1.2553 <s> F 0.0000
-1.2553 <s> G 0.0000
-1.2553 <s> H 0.0000
-1.2553 <s> I 0.0000
-0.3010 A </s> -0.3010
-0.3010 B </s> -0.3010
-0.3010 C </s> -0.3010
-0.3010 D </s> -0.3010
-0.3010 E </s> -0.3010
-0.3010 F </s> -0.3010
-0.3010 G </s> -0.3010
-0.3010 H </s> -0.3010
-0.3010 I </s> -0.3010

\3-grams:
-0.3010 <s> A </s>
-0.3010 <s> B </s>
-0.3010 <s> C </s>
-0.3010 <s> D </s>
-0.3010 <s> E </s>
-0.3010 <s> F </s>
-0.3010 <s> G </s>
-0.3010 <s> H </s>
-0.3010 <s> I </s>

\end\
