Language model created by QuickLM on Tue Mar 20 13:13:47 EDT 2018
Copyright (c) 1996-2010 Carnegie Mellon University and Alexander I. Rudnicky

The model is in standard ARPA format, designed by Doug Paul while he was at MITRE.

The code that was used to produce this language model is available in Open Source.
Please visit http://www.speech.cs.cmu.edu/tools/ for more information

The (fixed) discount mass is 0.5. The backoffs are computed using the ratio method.
This model based on a corpus of 5 sentences and 7 words

\data\
ngram 1=7
ngram 2=10
ngram 3=5

\1-grams:
-0.7782 </s> -0.3010
-0.7782 <s> -0.2218
-1.4771 FRIDAY -0.2218
-1.4771 MONDAY -0.2218
-1.4771 THURSDAY -0.2218
-1.4771 TUESDAY -0.2218
-1.4771 WEDNESDAY -0.2218

\2-grams:
-1.0000 <s> FRIDAY 0.0000
-1.0000 <s> MONDAY 0.0000
-1.0000 <s> THURSDAY 0.0000
-1.0000 <s> TUESDAY 0.0000
-1.0000 <s> WEDNESDAY 0.0000
-0.3010 FRIDAY </s> -0.3010
-0.3010 MONDAY </s> -0.3010
-0.3010 THURSDAY </s> -0.3010
-0.3010 TUESDAY </s> -0.3010
-0.3010 WEDNESDAY </s> -0.3010

\3-grams:
-0.3010 <s> FRIDAY </s>
-0.3010 <s> MONDAY </s>
-0.3010 <s> THURSDAY </s>
-0.3010 <s> TUESDAY </s>
-0.3010 <s> WEDNESDAY </s>

\end\
