Language model created by QuickLM on Tue Mar 20 08:14:21 EDT 2018
Copyright (c) 1996-2010 Carnegie Mellon University and Alexander I. Rudnicky

The model is in standard ARPA format, designed by Doug Paul while he was at MITRE.

The code that was used to produce this language model is available in Open Source.
Please visit http://www.speech.cs.cmu.edu/tools/ for more information

The (fixed) discount mass is 0.5. The backoffs are computed using the ratio method.
This model based on a corpus of 4 sentences and 6 words

\data\
ngram 1=6
ngram 2=8
ngram 3=4

\1-grams:
-0.7782 </s> -0.3010
-0.7782 <s> -0.2218
-1.3802 MONDAY -0.2218
-1.3802 THURSDAY -0.2218
-1.3802 TUESDAY -0.2218
-1.3802 WEDNESDAY -0.2218

\2-grams:
-0.9031 <s> MONDAY 0.0000
-0.9031 <s> THURSDAY 0.0000
-0.9031 <s> TUESDAY 0.0000
-0.9031 <s> WEDNESDAY 0.0000
-0.3010 MONDAY </s> -0.3010
-0.3010 THURSDAY </s> -0.3010
-0.3010 TUESDAY </s> -0.3010
-0.3010 WEDNESDAY </s> -0.3010

\3-grams:
-0.3010 <s> MONDAY </s>
-0.3010 <s> THURSDAY </s>
-0.3010 <s> TUESDAY </s>
-0.3010 <s> WEDNESDAY </s>

\end\
